34 128
1 0.035395287 -0.07219207 0.024990981 0.01739579 -0.033504095 -0.016214496 0.013993806 -0.055498604 0.04359895 0.06171111 0.16149512 -0.057274897 -0.0031156638 -0.026634457 0.04776592 -0.03467779 0.083316706 -0.017989768 -0.056300223 -0.12142666 -0.034995053 0.24129418 0.14660722 0.116644986 -0.059357602 0.23746392 -0.0040277652 -0.039353408 -0.02311058 -0.064674586 -0.33369556 0.0058806776 0.013827699 0.08995916 -0.08440117 0.10689643 0.3505246 0.068722144 0.25588098 -0.101660006 -0.06190895 0.017941266 -0.116684936 -0.117795 0.10038604 -0.032252382 -0.117468536 -0.07410255 -0.030994479 0.08069147 -0.03268681 0.009197691 0.16630651 0.15470237 0.049760945 -0.007122885 0.056329355 0.016584676 -0.12712662 0.07300947 -0.009166053 -0.09531422 0.12788689 0.06620665 0.10212419 0.006681072 0.017021427 -0.002913708 -0.14841121 -0.22723317 0.1784311 0.015854597 -0.075052544 -0.0074210907 -0.07161446 -0.032727394 0.010459791 0.01381655 -0.0950336 0.08813659 -0.013042385 -0.013993028 -0.038798653 0.21857052 -0.14040571 0.007522079 0.21276063 -0.09761319 0.098252326 0.21237843 -0.10190777 -0.022343848 0.043460775 -0.06214125 0.23577087 0.076049484 -0.29893437 -0.18238646 0.11440716 -0.08979475 -0.1075515 -0.13229845 0.09308081 0.14704327 0.049458247 -0.14386952 -7.4777563e-06 0.08749024 0.026192315 -0.034171317 -0.019073918 0.01315411 0.050095454 0.12450078 -0.17739291 0.095752105 -0.055442736 0.14153548 0.0571805 0.17323679 0.051189944 -0.1870459 -0.0019235588 0.09100928 0.043440044 -0.26245442 -0.12213826 0.09712303
34 0.049932037 -0.042948067 0.26523533 -0.18212278 0.0025911033 -0.12086467 0.03619196 -0.07887397 0.08461471 0.15506136 0.32453057 0.018923113 -0.02090717 -0.06941379 -0.0695303 -0.07941952 -0.05754806 0.053709764 -0.07477945 -0.0105640115 0.089238174 0.108011566 0.12075541 0.0244643 -0.12283748 0.13390283 -0.068860464 0.23847145 0.14366218 -0.038240742 -0.16184919 0.084688924 -0.08286618 0.047847617 -0.08591947 0.016924411 0.27146444 0.056732357 0.247494 0.047451172 -0.022053711 0.053421494 -0.05091597 -0.23618647 0.08006486 0.007076542 0.1365676 -0.22998612 -0.06166115 0.028952425 0.13229614 0.03262843 -0.019606356 0.06920812 0.035595734 0.08454837 0.18068174 -0.09975849 -0.10237463 0.023304146 0.1187962 -0.17461914 0.07196493 0.11287561 0.12951945 0.0106311655 0.1273022 0.01595419 -0.099536724 -0.07982417 0.11530873 0.021167682 -0.11783417 0.05682494 0.086510606 -0.17367654 0.062590756 -0.019598152 0.104041494 0.18615471 0.0067271832 -0.09647856 -0.040078986 0.079253554 -0.04781953 0.16514525 0.1034767 -0.14637516 0.12921444 0.18825126 -0.12545557 -0.027841145 0.07637677 -0.028354172 0.09316206 0.0010519008 -0.25199428 -0.40995082 0.009701333 0.007583012 -0.23578283 0.13497888 0.04753177 0.047673017 -0.010266232 -0.03564785 -0.021103844 -0.25279057 -0.009524389 0.01440771 -0.010127952 0.016954262 0.051973477 0.084043704 0.07705653 0.0076569426 -0.017623354 0.1624974 0.06020906 0.013159835 0.006414154 -0.076760545 -0.05678295 0.1868482 -0.059376873 -0.15379938 -0.2011854 -0.024543414
33 0.05126404 -0.05465451 0.22667925 -0.16030043 -0.0028759032 -0.10937203 0.03755226 -0.08057229 0.069901064 0.15390433 0.31240538 0.0033785354 -0.029388374 -0.058681533 -0.040394172 -0.07242224 -0.035178144 0.04193838 -0.08267387 -0.017531764 0.08008596 0.13477772 0.117921576 0.046833377 -0.11999885 0.14475451 -0.07324548 0.20043385 0.12517166 -0.05258748 -0.20128782 0.07016215 -0.0624742 0.05005434 -0.08788906 0.041197173 0.30917966 0.058481142 0.2648992 0.039051786 -0.023774508 0.0460854 -0.047276147 -0.22699106 0.07313313 0.010504432 0.10285413 -0.22167473 -0.05021472 0.030991996 0.1171394 0.036872737 0.020724505 0.07523586 0.048016705 0.08688429 0.16996089 -0.08922889 -0.10544162 0.0333048 0.110602856 -0.17454602 0.07634745 0.123216 0.13319916 0.012882938 0.12898223 0.015821094 -0.124349505 -0.107767075 0.13932951 0.022276187 -0.12103331 0.05295729 0.07233685 -0.16410807 0.044142798 -0.022132413 0.086950146 0.18812686 0.02012414 -0.09745335 -0.046998188 0.110072255 -0.063349634 0.158751 0.124607466 -0.139053 0.13594605 0.19845082 -0.124145664 -0.023797667 0.077033706 -0.03002262 0.12745139 0.019961039 -0.2886044 -0.4016575 0.016056167 -0.010582769 -0.22142869 0.10882179 0.062655516 0.066209115 0.0028449055 -0.04782586 -0.0028993334 -0.21778749 -0.00087943266 -0.0021990968 -0.00995491 0.027846875 0.058963224 0.084714465 0.053406328 0.0147444075 -0.02959147 0.17414485 0.059898496 0.039674077 0.016543955 -0.09080968 -0.06023319 0.18854888 -0.04538301 -0.1727695 -0.18701355 -0.0038072444
3 0.043127667 -0.057366904 0.19174303 -0.12093859 -0.0115783615 -0.092593595 0.015835287 -0.07267282 0.06296434 0.12505339 0.27172214 -0.00486591 -0.016833844 -0.056390356 -0.03124761 -0.0741477 -0.023181655 0.032886416 -0.07522494 -0.042809144 0.054392017 0.13947248 0.120918065 0.056700524 -0.103357606 0.15737401 -0.059024673 0.15078016 0.08735976 -0.047382984 -0.20630327 0.05839863 -0.05313567 0.061113097 -0.07086569 0.04058773 0.28685045 0.048856303 0.24429472 0.020902045 -0.028585132 0.04009903 -0.06007743 -0.18609302 0.06726722 -0.0036707185 0.067472324 -0.17924178 -0.041886553 0.028745012 0.09149568 0.017312896 0.032779768 0.089625 0.038702145 0.06772007 0.13139609 -0.068937466 -0.11116506 0.049746193 0.0877541 -0.14989752 0.0866063 0.105781704 0.11931619 0.008656199 0.09916186 0.010790818 -0.10153111 -0.12639593 0.12659931 0.008141281 -0.10859089 0.026855744 0.04249081 -0.13464941 0.044384304 -0.021064434 0.053369116 0.15230834 0.0043951944 -0.07380878 -0.029516183 0.11946498 -0.075019516 0.12654966 0.12062571 -0.1153531 0.11181769 0.18540594 -0.10831048 -0.013955881 0.067802966 -0.025941549 0.1379207 0.017396988 -0.26663804 -0.3374019 0.037081983 -0.021553 -0.1917022 0.05533491 0.06642107 0.0742016 -0.00034632935 -0.062846325 -0.008127855 -0.15560402 0.009472912 -0.006302242 -0.010822007 0.010737709 0.06097396 0.09294207 0.0077415006 0.031537324 -0.037069753 0.1538419 0.05779435 0.051638722 0.012256246 -0.104231186 -0.042250037 0.16111277 -0.035538763 -0.17866425 -0.17172724 0.0060989494
2 0.029378178 -0.08037639 0.07779409 -0.047240548 -0.028538596 -0.04059358 0.0046636844 -0.067060895 0.044505868 0.092708066 0.20496528 -0.030811144 -0.015712801 -0.036989253 0.017177053 -0.06314337 0.047132146 0.0067963353 -0.055029437 -0.1037454 -0.009728887 0.18866631 0.13826735 0.102204785 -0.06884986 0.2079714 -0.025034562 0.020781465 0.031199932 -0.06580422 -0.2859299 0.03230458 -0.014135934 0.07943421 -0.07182039 0.08871924 0.32060447 0.055220775 0.2462886 -0.05791919 -0.034838263 0.030403245 -0.10313401 -0.14428194 0.09174192 -0.03389129 -0.058229152 -0.1207196 -0.02465131 0.059848674 0.022412341 0.0016062546 0.11815742 0.13213378 0.039573316 0.027225113 0.066297814 -0.017781174 -0.117681466 0.078094535 0.03492095 -0.109887026 0.11613162 0.09833305 0.10126575 0.015558718 0.049399447 0.0015994335 -0.12705673 -0.2040768 0.15919021 -0.0006999891 -0.08449375 -0.0021799495 -0.03083303 -0.07235803 0.020117698 0.00013798395 -0.031807363 0.12103066 -0.013852059 -0.040309433 -0.033055242 0.18449163 -0.11462436 0.044175122 0.18174364 -0.1047672 0.109471686 0.1990819 -0.10375841 -0.018576574 0.055842984 -0.05048619 0.20481497 0.052709438 -0.28276834 -0.2382408 0.08587729 -0.05883282 -0.13085994 -0.052452035 0.07350486 0.11702791 0.040389802 -0.10560104 -0.0074278302 -0.007676366 0.028306214 -0.022941874 -0.011406452 0.01338768 0.062133834 0.111415744 -0.11596224 0.069608055 -0.048632704 0.1426258 0.06510124 0.1372541 0.035818215 -0.1541719 -0.0260889 0.12293711 0.0066224653 -0.22935596 -0.14358416 0.05204443
4 0.049582105 -0.073530085 0.12977993 -0.07825255 -0.016291315 -0.049903896 0.004767257 -0.07616388 0.056103293 0.101511255 0.22519659 -0.03178086 -0.023673989 -0.040064063 -0.0072915764 -0.068083405 0.018822553 0.0037540565 -0.071271725 -0.0848633 0.015341348 0.17370036 0.1440574 0.08333435 -0.08770119 0.19721077 -0.040629864 0.0702646 0.04561676 -0.061564643 -0.25824478 0.04795955 -0.029803244 0.079251125 -0.07115882 0.064309366 0.31854796 0.06349219 0.24715343 -0.020711359 -0.034658168 0.025418906 -0.08974599 -0.16445935 0.08424055 -0.025711657 0.00090615277 -0.14457247 -0.043165382 0.05346144 0.037397776 0.011945597 0.08474956 0.11674518 0.03896716 0.04269451 0.10427014 -0.03699539 -0.116499424 0.064678684 0.056109168 -0.12954041 0.11317984 0.10395834 0.1110782 0.014277076 0.07329096 -0.0010596022 -0.13239 -0.17882796 0.14995348 0.00928937 -0.086705305 0.012824365 -0.0013007966 -0.09640372 0.033002146 -0.0058098794 -0.010282078 0.12237821 -0.002719251 -0.047080774 -0.038715675 0.14657725 -0.10715769 0.081082396 0.15736137 -0.10250522 0.10319935 0.2050337 -0.11081791 -0.017035466 0.0633499 -0.051621065 0.17167625 0.043077078 -0.27928212 -0.27679542 0.061699886 -0.04408208 -0.14598809 -0.01757509 0.07073756 0.10465781 0.029490463 -0.09908743 -0.01577171 -0.059247572 0.02402299 -0.012233255 -0.026316924 0.012395454 0.066047 0.09847607 -0.07372844 0.06452789 -0.050059088 0.15133683 0.063460976 0.10935061 0.035423223 -0.14201203 -0.03523211 0.14391029 -0.0015036382 -0.20388116 -0.15873301 0.047256157
32 0.053334095 -0.05398051 0.20825402 -0.13563648 0.0029582574 -0.09402604 0.029256374 -0.07424204 0.07849479 0.12081143 0.2743592 -0.01474124 -0.026662307 -0.058144625 -0.039321832 -0.06421022 -0.02574096 0.028997762 -0.07200986 -0.020169115 0.06891287 0.13559712 0.11885832 0.04821811 -0.120882235 0.16129677 -0.053261448 0.17741409 0.10490995 -0.04836076 -0.19526136 0.060793377 -0.06574901 0.0610735 -0.08534055 0.04563323 0.29411644 0.06732144 0.2550538 0.018186083 -0.042704817 0.043587323 -0.056161474 -0.20794371 0.0912869 -0.0072093196 0.09481573 -0.19588482 -0.059403546 0.041262437 0.08680217 0.027813673 0.029597513 0.08938428 0.03979107 0.06568583 0.1613855 -0.071738824 -0.10921634 0.024417033 0.090128295 -0.16002834 0.08534324 0.095511734 0.12829386 0.017792106 0.10472671 0.007987678 -0.11734356 -0.10074251 0.13987125 0.012815476 -0.11284147 0.050992288 0.057655733 -0.14211044 0.043478932 -0.015290823 0.06505152 0.16992839 0.0067830686 -0.08814075 -0.0386516 0.10284174 -0.072370455 0.12740031 0.12191416 -0.13295698 0.12348749 0.18533115 -0.11203511 -0.028730161 0.06607501 -0.034413803 0.12554727 0.022633104 -0.26971048 -0.3544442 0.017492957 -0.014186291 -0.20861137 0.07496476 0.043954812 0.07165337 0.010010008 -0.050174743 -0.01508395 -0.18914787 -0.010668178 0.00061577954 -0.019431084 0.017238982 0.05560294 0.08357853 0.031441096 0.018480334 -0.026918309 0.15376608 0.058685288 0.043525714 0.020079331 -0.094983175 -0.05263989 0.1727986 -0.02992268 -0.1732767 -0.16828777 0.013419683
14 0.046947494 -0.05333239 0.14665487 -0.09594824 -0.014699009 -0.070618466 0.012774186 -0.062080048 0.06092147 0.100708716 0.22796631 -0.016225178 -0.017164253 -0.04809487 -0.006307225 -0.06090121 0.0050664833 0.016675834 -0.067857414 -0.052624106 0.032623734 0.15080905 0.12749773 0.06372168 -0.090830304 0.17771064 -0.0408571 0.1000533 0.074602395 -0.053034164 -0.23607378 0.053875554 -0.03743912 0.0625156 -0.07315357 0.06303408 0.29598212 0.06808346 0.2302552 -0.009167445 -0.03539335 0.034253843 -0.0697031 -0.16631934 0.083419815 -0.009993398 0.019053815 -0.1579862 -0.041370574 0.04811882 0.052428715 0.021994924 0.06986201 0.10781417 0.038310252 0.05415833 0.11438111 -0.036751844 -0.10643579 0.038512554 0.05585482 -0.1321939 0.09631082 0.08936448 0.11221699 0.018499801 0.08401536 0.00030941842 -0.12486654 -0.14893237 0.13776253 0.005624664 -0.094497755 0.024773264 0.01838906 -0.10196165 0.028112737 -0.015597382 0.017611576 0.13163418 0.0040495475 -0.06453522 -0.033699907 0.13292642 -0.084641494 0.086774796 0.13954659 -0.10792786 0.10998579 0.179707 -0.11216111 -0.018493127 0.067507066 -0.034757987 0.14343597 0.043384586 -0.25852552 -0.28240174 0.05548951 -0.043383818 -0.16806777 0.01593547 0.069373004 0.090866834 0.02328271 -0.08030513 -0.0030814486 -0.10370964 0.0025383513 -0.010016593 -0.018094769 0.020542435 0.05302886 0.08912965 -0.030349884 0.04051665 -0.033965487 0.14063443 0.061428174 0.08722662 0.029518295 -0.12343777 -0.03368277 0.13744587 -0.013752304 -0.19323905 -0.14718467 0.028044606
24 0.04653399 -0.04559199 0.20028624 -0.133825 0.0052251583 -0.0854771 0.030661818 -0.07578972 0.0806208 0.12410825 0.27449027 -0.0037481587 -0.013993135 -0.059462257 -0.0342032 -0.06055759 -0.024710834 0.025505872 -0.07508523 -0.022932619 0.052689046 0.13315788 0.11095419 0.04714576 -0.11884653 0.16007717 -0.05151036 0.165756 0.09282818 -0.040482786 -0.19560432 0.057119243 -0.059833646 0.054117706 -0.079868875 0.043714046 0.2736101 0.0629548 0.24281406 0.012254885 -0.04417919 0.042576734 -0.06938827 -0.19953641 0.09094504 -0.0082246 0.08528664 -0.1837099 -0.058731362 0.048997235 0.090173475 0.039397083 0.034628987 0.07665572 0.031905938 0.067008875 0.16212206 -0.05831256 -0.10041696 0.032795887 0.07275628 -0.1484768 0.07787768 0.09629725 0.12564497 0.014639216 0.106116496 0.0073467004 -0.11564369 -0.10187352 0.1326563 0.017970443 -0.101934716 0.04415517 0.05423205 -0.13761222 0.053294674 -0.008093325 0.060257223 0.16418667 0.009335619 -0.08673115 -0.038260084 0.11679975 -0.0793525 0.121564895 0.12519853 -0.1329121 0.119633794 0.1816501 -0.11582767 -0.027649237 0.065440245 -0.038080987 0.118674316 0.018619295 -0.2672383 -0.35148823 0.028553538 -0.031128872 -0.20808053 0.05720174 0.047858495 0.07914842 0.01043191 -0.057660986 -0.011938936 -0.18163864 -0.0046430957 0.0055081937 -0.01131571 0.023027994 0.05202728 0.08910096 0.0106321825 0.017799692 -0.038896553 0.14876159 0.058563255 0.061750513 0.022555297 -0.1029072 -0.036581546 0.16789468 -0.032548346 -0.17274201 -0.17356445 0.008293215
6 0.03995514 -0.06442549 -0.007041174 0.02593184 -0.034016695 -0.0003623497 0.012605009 -0.07124015 0.053566556 0.06623883 0.15356788 -0.0688343 0.009071023 -0.024152722 0.082959205 -0.008147895 0.09988239 -0.024543753 -0.045400314 -0.11479606 -0.056305856 0.27820018 0.13889717 0.13350148 -0.07848158 0.27124628 0.0018399012 -0.08180114 -0.03650013 -0.053124994 -0.37592703 -0.0086361505 0.015821462 0.106123574 -0.09740567 0.12877464 0.38083953 0.08913619 0.2774493 -0.13254255 -0.072147794 0.012854609 -0.10935092 -0.1119361 0.102457896 -0.034882277 -0.15104818 -0.08444663 -0.04425146 0.07608798 -0.027747642 -0.002055408 0.20533521 0.17300302 0.047501903 -0.013867445 0.054452464 0.043832377 -0.14348134 0.057079464 -0.038434908 -0.095157035 0.13452294 0.05513466 0.11301957 0.0018205135 0.002859972 -0.016137714 -0.16417687 -0.25782785 0.19239365 0.018700853 -0.08560096 0.0076381112 -0.104252376 -0.014087615 -0.008015763 0.02141958 -0.12878834 0.09766446 -0.011046832 -0.0094724875 -0.046943564 0.23651515 -0.15241794 -0.02222588 0.22919391 -0.10428551 0.104892634 0.21767107 -0.11811991 -0.027624777 0.026988514 -0.07006138 0.26278082 0.08419094 -0.314804 -0.15350322 0.14002347 -0.12606458 -0.09316451 -0.18058425 0.10133728 0.15576708 0.043313563 -0.15441665 0.014192502 0.13212593 0.020256402 -0.039455093 -0.010833 0.031971686 0.053862125 0.13303985 -0.21126418 0.10322431 -0.076082624 0.1412288 0.067224324 0.20777677 0.067435905 -0.21082292 -0.0064597405 0.09685465 0.05757594 -0.31118357 -0.1197412 0.11473956
7 0.025589027 -0.064682566 -0.040456407 0.06478271 -0.038442984 0.012724743 0.01821629 -0.06963845 0.049732078 0.0534372 0.12782806 -0.07952875 0.028684275 -0.03458949 0.096851364 -0.004554973 0.13439581 -0.033504702 -0.032670207 -0.13339397 -0.087911524 0.3089034 0.13836277 0.14091773 -0.0697184 0.28385586 0.013709578 -0.12344593 -0.060734462 -0.061463594 -0.4011864 -0.016178183 0.012140408 0.11390835 -0.09215859 0.15298091 0.39199087 0.09321182 0.28424856 -0.16035247 -0.06797784 0.0043406542 -0.120528616 -0.0883939 0.12235088 -0.030581048 -0.1917621 -0.06414422 -0.042321257 0.09373882 -0.056833405 0.006124866 0.2395701 0.18264711 0.051128797 -0.039826088 0.024493106 0.07555594 -0.14379442 0.06331814 -0.054387346 -0.08571162 0.15417469 0.057340052 0.11082719 -0.0116584115 -0.026366547 -0.019349921 -0.16162439 -0.2813679 0.19943438 0.011663494 -0.08373408 -0.0013499347 -0.1278619 0.0007881428 -0.011895869 0.02479414 -0.15723477 0.09248312 -0.01351149 0.007795065 -0.04480679 0.27381438 -0.15398481 -0.042033393 0.25226143 -0.09692784 0.10857287 0.21508011 -0.11441111 -0.032707192 0.020625288 -0.066449046 0.27959052 0.10144042 -0.31366262 -0.11608312 0.15384811 -0.14135715 -0.0740874 -0.22792947 0.109619536 0.17936409 0.051167306 -0.17191726 0.01364031 0.18369189 0.031895787 -0.04242618 -0.011993395 0.034676854 0.05689063 0.13920662 -0.26770318 0.112249285 -0.07034916 0.13122004 0.057221875 0.23041978 0.07188016 -0.21599293 0.0043977145 0.07790771 0.07229655 -0.32777447 -0.095610194 0.13365811
9 0.049419507 -0.0631906 0.13235596 -0.082959175 -0.019337585 -0.063036166 0.017411748 -0.06584869 0.06798331 0.09563608 0.22274747 -0.026988622 -0.0030074923 -0.038486082 0.0016612737 -0.0506927 0.010619482 0.014715097 -0.059023168 -0.062689476 0.024860641 0.16826652 0.1120107 0.07095654 -0.09230416 0.17776383 -0.03585997 0.073387444 0.05786947 -0.04269876 -0.24093585 0.041042693 -0.024927927 0.06790762 -0.0753762 0.069376655 0.2995739 0.07053583 0.23498717 -0.031356413 -0.041750412 0.033264536 -0.07497318 -0.15649904 0.08999996 -0.02072244 0.0022364918 -0.15154949 -0.03817993 0.054437943 0.045830596 0.022930633 0.07597228 0.10307877 0.037256226 0.04184457 0.1125088 -0.02555912 -0.11212199 0.040567998 0.046530448 -0.1284253 0.091536075 0.07861956 0.1165281 0.008567507 0.062123165 -0.0059459405 -0.11652592 -0.15402743 0.1462658 0.013107313 -0.09945647 0.028431226 0.0053821164 -0.0993179 0.03069195 -0.0022131626 0.0045527024 0.13584293 -0.0012242607 -0.058918767 -0.031314433 0.14767079 -0.09092565 0.079498656 0.15026596 -0.12104198 0.10926995 0.19128038 -0.11626035 -0.013829591 0.05007101 -0.03755807 0.1614575 0.047764257 -0.26900053 -0.27385068 0.054524217 -0.048451293 -0.16034023 -0.007304224 0.063414134 0.089167885 0.015030777 -0.08051829 -0.010498233 -0.07396041 0.003513522 -0.0049141124 -0.01066445 0.023621598 0.051945433 0.10331494 -0.061516542 0.046743717 -0.046777546 0.13884354 0.055934317 0.104494445 0.03347211 -0.13539776 -0.035626106 0.13304141 -0.0026468378 -0.20069696 -0.15249488 0.04495484
8 0.046763998 -0.07401635 0.043428868 -0.008307519 -0.014038322 -0.031403355 0.006892244 -0.054318897 0.05812893 0.085827336 0.1691537 -0.055869766 -0.0014203697 -0.044506855 0.031573355 -0.042676866 0.072262995 -0.00073956937 -0.058808893 -0.09705428 -0.01285969 0.22006293 0.15096834 0.1098672 -0.070052825 0.22048526 -0.017053865 -0.00084066944 0.019703044 -0.06481536 -0.3102803 0.029413631 -0.0041057193 0.09462433 -0.09540146 0.09737315 0.34663332 0.06610102 0.2663143 -0.06565053 -0.05111225 0.015720699 -0.09805247 -0.14562239 0.08734802 -0.028527113 -0.07993377 -0.10271381 -0.041570343 0.075412706 -0.010304555 0.0014246814 0.15150389 0.15191017 0.038506214 0.015638957 0.06669591 -0.004044868 -0.13038425 0.0690854 0.01712646 -0.099491015 0.1290364 0.08470649 0.11577094 -0.002354206 0.041864168 -0.006845433 -0.14191797 -0.21006355 0.16975428 0.020093651 -0.08406092 0.010191758 -0.051661268 -0.0723348 0.004798479 0.015264917 -0.07133273 0.12357473 -0.014397685 -0.032515723 -0.0495114 0.1877507 -0.11332042 0.039108757 0.19833827 -0.0980449 0.1072429 0.21527606 -0.0992177 -0.034478247 0.04707056 -0.05773299 0.2144128 0.0610678 -0.28495556 -0.22214262 0.09546304 -0.07319752 -0.11489697 -0.09609734 0.0751294 0.12323092 0.037044313 -0.13390917 -0.008740354 0.037882537 0.028839488 -0.019671427 -0.026636831 0.013455099 0.06371235 0.1207908 -0.14561416 0.07226886 -0.053888336 0.14511102 0.06297221 0.14965993 0.037025955 -0.1776552 -0.023158187 0.11468037 0.031944867 -0.24237183 -0.12662889 0.08057482
28 0.04971651 -0.04453042 0.18032867 -0.11727729 0.0022070098 -0.07965677 0.037794195 -0.06951245 0.07304559 0.11456651 0.2632231 -0.016372044 -0.006964129 -0.06061467 -0.01302606 -0.06052641 -0.01934714 0.015065612 -0.07539453 -0.039968304 0.043279182 0.14622588 0.106064856 0.050298527 -0.11443751 0.16142681 -0.037874393 0.15966259 0.100515485 -0.036136057 -0.21213306 0.060430072 -0.05793137 0.053672362 -0.09148556 0.050701153 0.28961894 0.07584219 0.24739942 -0.0024128149 -0.03339684 0.03260178 -0.057038896 -0.18882021 0.086823836 -0.008820516 0.06622985 -0.19124793 -0.044251688 0.043365393 0.08926103 0.024064625 0.041353576 0.08490192 0.04032995 0.053365134 0.15584539 -0.06034742 -0.11143308 0.023277836 0.069106594 -0.15022992 0.080395296 0.08413064 0.12109799 0.012222411 0.09314286 0.006374667 -0.12141665 -0.11395421 0.14077498 0.024627104 -0.112326324 0.05228144 0.048102107 -0.12644391 0.047726292 -0.018888623 0.05768443 0.15955567 0.01063099 -0.0835931 -0.04361729 0.11328428 -0.07630077 0.11708147 0.13019162 -0.123657815 0.12462255 0.17621656 -0.11054928 -0.020970702 0.0722642 -0.031007953 0.12384203 0.031804193 -0.26623607 -0.33522472 0.02719729 -0.029718496 -0.18941084 0.052047275 0.056290302 0.08014401 0.012843971 -0.067395866 -0.00405515 -0.16515093 -0.0033773363 0.010930246 -0.0040493086 0.028286723 0.05593988 0.094840504 0.011491368 0.02963192 -0.039226677 0.15515274 0.059830956 0.062142737 0.032453127 -0.10033654 -0.033304658 0.16334951 -0.018947471 -0.18137126 -0.1604031 0.017813733
30 0.06450615 -0.044902947 0.27125263 -0.17978027 0.003460125 -0.12300732 0.044567056 -0.09056851 0.08955697 0.14099655 0.31824014 0.010458838 -0.020121938 -0.07468694 -0.0509437 -0.06604054 -0.061957452 0.037443854 -0.08279523 -0.005490081 0.09049478 0.121659905 0.115293235 0.03319122 -0.1304674 0.14638843 -0.05853697 0.24867907 0.14986435 -0.047440995 -0.1742354 0.07522625 -0.074285716 0.04050714 -0.09760279 0.030592928 0.2871804 0.06537792 0.25765193 0.04844596 -0.032911856 0.047524292 -0.046219748 -0.23509055 0.08890309 0.009869517 0.15088172 -0.24621746 -0.064072184 0.032273736 0.13937503 0.045920108 -0.012014611 0.06339228 0.029344084 0.089953505 0.20271358 -0.09773896 -0.10764431 0.011289542 0.111477666 -0.17492783 0.07229334 0.11450212 0.13198131 0.014703449 0.14203689 0.00990766 -0.110496715 -0.06911768 0.13930285 0.028597835 -0.12970476 0.07296529 0.098364934 -0.16492274 0.0552904 -0.022023214 0.11662397 0.18997872 0.02324856 -0.10642069 -0.034643266 0.07979558 -0.058378905 0.17563537 0.09369094 -0.15701626 0.12942785 0.18404955 -0.13257352 -0.01955763 0.09307537 -0.024165424 0.093028896 0.016929751 -0.2696571 -0.42548275 0.0091950055 -0.007174141 -0.23746572 0.1400243 0.0483338 0.058994006 -0.00024859767 -0.0396251 -0.006275281 -0.26568142 -0.013729192 0.019469952 -0.007994591 0.029143775 0.04840648 0.088115595 0.087311454 -0.00468961 -0.022429189 0.16030972 0.06073749 0.025373759 0.022914419 -0.07921332 -0.06006905 0.19706978 -0.046058383 -0.16534185 -0.20406117 -0.018102456
11 0.039929397 -0.06342578 0.0630322 -0.030226137 -0.027153 -0.028792731 0.016545106 -0.080024034 0.06681936 0.09651356 0.1983856 -0.05254684 0.0046935654 -0.040917348 0.028752008 -0.032031674 0.05742198 -0.0138307465 -0.060238667 -0.10758555 -0.016927626 0.24257773 0.14539082 0.1118159 -0.08629713 0.23780014 -0.014586659 0.0060770377 0.015524007 -0.05780974 -0.32645163 0.0150670335 -0.01894825 0.089184575 -0.09263639 0.10846317 0.35631165 0.078325555 0.280495 -0.08048481 -0.058704633 0.013053566 -0.106651425 -0.15209943 0.1021103 -0.020717248 -0.07372338 -0.121682465 -0.05140659 0.06996209 0.000551941 0.01579054 0.14730483 0.14243925 0.03785898 0.009896602 0.08956673 0.009344601 -0.1349656 0.057747554 0.0070929513 -0.11583456 0.12634015 0.07934202 0.12620434 0.003298436 0.034743406 -0.010819906 -0.15085123 -0.21856815 0.17379504 0.015316727 -0.09650325 0.021440031 -0.051702473 -0.07365547 0.006978292 0.012820419 -0.058593113 0.12552036 -0.004775821 -0.03450673 -0.049966563 0.20736857 -0.123692505 0.038532183 0.19507667 -0.115000196 0.11477375 0.20774621 -0.11266021 -0.025633832 0.056101598 -0.05277602 0.21335042 0.05982379 -0.29979533 -0.2275356 0.090569966 -0.08407753 -0.13273036 -0.09427613 0.077681206 0.14017202 0.0327352 -0.13474663 -0.0021305147 0.02318148 0.017133506 -0.02115497 -0.020356145 0.014430644 0.059603807 0.12352571 -0.1459663 0.083377846 -0.057598524 0.15596634 0.062990956 0.1521341 0.04831284 -0.17617248 -0.023043416 0.13096163 0.022672487 -0.2672339 -0.14151886 0.07436365
20 0.047118302 -0.06419616 0.120857105 -0.07418538 -0.017667629 -0.058233898 0.010648507 -0.06415241 0.06327713 0.10292193 0.21853974 -0.034672048 -0.014656828 -0.03405925 0.00817757 -0.06433648 0.018835729 0.014840613 -0.068200685 -0.08174707 0.020931382 0.17867784 0.14033225 0.08351959 -0.09114933 0.19433302 -0.030337304 0.07629939 0.05120298 -0.054394223 -0.26982462 0.04069525 -0.027824821 0.07642515 -0.08253009 0.07170778 0.3148991 0.06793449 0.2534026 -0.03246919 -0.045889262 0.035387594 -0.090486266 -0.16573207 0.08385438 -0.013424364 -0.009945113 -0.14320654 -0.03616753 0.05667163 0.029494978 0.012898041 0.09501135 0.12409937 0.046197727 0.046650596 0.09440211 -0.025590751 -0.12437084 0.061110742 0.046992064 -0.12178351 0.1111401 0.09813051 0.12511711 0.012898249 0.06467389 -0.004990424 -0.12949595 -0.18106982 0.15336648 0.016059145 -0.0971443 0.012958663 -0.004356579 -0.099911764 0.028332802 0.00054387655 -0.0162355 0.13610844 0.0048367106 -0.0516313 -0.038519 0.15816674 -0.09821471 0.06848932 0.17010653 -0.12094124 0.10922868 0.19567569 -0.110831544 -0.026971376 0.059277188 -0.046049967 0.18478061 0.046106037 -0.29004255 -0.28456873 0.06551753 -0.052983943 -0.16085957 -0.022763604 0.07881522 0.111856855 0.02013468 -0.09778866 -0.012481091 -0.060337435 0.01827263 -0.013619115 -0.024930682 0.010545722 0.059332237 0.112595476 -0.08152273 0.06694001 -0.04653648 0.1535851 0.069984406 0.114233024 0.030496504 -0.14168736 -0.029103007 0.14609069 0.002662611 -0.2192512 -0.15270433 0.04212904
29 0.0527012 -0.044818293 0.20822003 -0.13023987 -0.006778621 -0.09518706 0.03700161 -0.07596346 0.06746282 0.124875724 0.2772701 -0.008749068 -0.022654109 -0.05357526 -0.024369143 -0.06811138 -0.028130459 0.028725008 -0.077318974 -0.026938897 0.05659003 0.1427376 0.10698644 0.052199323 -0.11662459 0.15863077 -0.05034226 0.18074037 0.10433046 -0.045611504 -0.1989468 0.06324286 -0.060234297 0.047138818 -0.08955124 0.035499133 0.29114568 0.07061529 0.25182536 0.020462763 -0.041569203 0.042299014 -0.053757254 -0.20042306 0.08812168 -0.00058508344 0.079986885 -0.1925164 -0.050158963 0.048071176 0.08905939 0.03600907 0.03364267 0.08077942 0.029725088 0.07068206 0.15487973 -0.073469825 -0.10405214 0.033692338 0.09239276 -0.15794823 0.07274911 0.102503955 0.12795396 0.0090460535 0.09646099 0.0033743146 -0.119443126 -0.10975643 0.13747306 0.018126035 -0.113650076 0.0455393 0.062488146 -0.14214547 0.03800133 -0.009456911 0.066028915 0.17348702 0.0063335947 -0.091472626 -0.036953397 0.10642382 -0.07925425 0.12845965 0.122753404 -0.13031594 0.12809937 0.1873202 -0.124359906 -0.022870837 0.06676901 -0.02632846 0.115508646 0.026525946 -0.26757798 -0.35909158 0.019914683 -0.019824129 -0.21179684 0.070348285 0.05316188 0.076243125 -0.00094749895 -0.052918073 -0.0008640229 -0.18886757 -0.010574073 0.007976855 -0.0057297423 0.024406891 0.06131368 0.09088019 0.026507074 0.016295021 -0.038692404 0.15683916 0.059748266 0.048341718 0.023877133 -0.100431845 -0.048016697 0.17850918 -0.03438621 -0.18288907 -0.17109749 0.0036722077
5 0.02387434 -0.07355148 -0.049468797 0.061263695 -0.035115242 0.012341535 0.0064850496 -0.06335573 0.050559 0.05252927 0.13357042 -0.07349034 0.02840103 -0.03391972 0.10570991 -0.0070834444 0.1457353 -0.036456738 -0.03469882 -0.1518536 -0.09100845 0.31185606 0.14044899 0.14636509 -0.060981117 0.29202625 0.02663932 -0.13071589 -0.072361656 -0.06943255 -0.40527898 -0.028827189 0.029662779 0.12381989 -0.10878196 0.15829602 0.40335175 0.09292878 0.2923985 -0.17340553 -0.07352754 -0.002467619 -0.13512592 -0.09296917 0.11685953 -0.042164765 -0.19147591 -0.05470794 -0.03919429 0.09642608 -0.070332564 0.0063392697 0.2458418 0.20245142 0.055533603 -0.045357868 0.025981743 0.07125591 -0.1494273 0.07828437 -0.05401892 -0.08011177 0.15347998 0.045224983 0.11670009 0.002047949 -0.030065877 -0.013821068 -0.17581794 -0.2911835 0.21094543 0.008694998 -0.07206471 -0.006046007 -0.1323815 0.0069879377 -0.020037308 0.02183039 -0.16196896 0.0855032 -0.022336936 0.0040466534 -0.051388126 0.28175518 -0.17243235 -0.04093818 0.25510338 -0.10674732 0.098573886 0.214789 -0.12049247 -0.022122776 0.030667711 -0.069771454 0.2829837 0.10547954 -0.32217354 -0.11863901 0.15929832 -0.14596196 -0.08248721 -0.2391533 0.11344861 0.18161947 0.050730743 -0.1863741 0.006953184 0.19277227 0.035452984 -0.039897516 -0.02152329 0.034891635 0.057593945 0.15157022 -0.27997252 0.117362976 -0.087301515 0.13615797 0.05656298 0.23480968 0.064024344 -0.23725052 0.012211025 0.07260282 0.0704739 -0.3367903 -0.09015998 0.14488442
26 0.055006262 -0.042570427 0.19277011 -0.12596415 0.006138267 -0.092050925 0.04413013 -0.07713234 0.073250584 0.114483625 0.27502197 -0.020222323 -0.0044836784 -0.066924006 -0.006348117 -0.05696514 -0.0043753586 0.016048599 -0.06676648 -0.02990836 0.047099948 0.16485004 0.1230378 0.06764969 -0.109612614 0.18722706 -0.0334275 0.16213791 0.10086489 -0.04535936 -0.22823387 0.05532962 -0.054814506 0.062023394 -0.102530524 0.048843276 0.30628848 0.08441005 0.2559126 -0.009800987 -0.040041644 0.037466183 -0.066389345 -0.19151515 0.10125693 -0.0016479571 0.06641769 -0.19162156 -0.05026121 0.052379522 0.07862909 0.038661115 0.058299996 0.09620413 0.03513022 0.060746435 0.16532014 -0.04813333 -0.11419569 0.017922994 0.06951699 -0.1535907 0.09481138 0.08324818 0.13633153 0.004967229 0.099431984 -0.007139257 -0.11814619 -0.117750384 0.15190263 0.017490296 -0.11333649 0.05175009 0.03510451 -0.11879132 0.044643138 -0.009774031 0.041565455 0.16904373 0.011208225 -0.080836184 -0.05088627 0.12940255 -0.08002581 0.12222995 0.1306302 -0.14334552 0.122110486 0.18793064 -0.12913282 -0.03068127 0.07206096 -0.034225892 0.12672314 0.034041848 -0.27819657 -0.33476433 0.039620467 -0.03893672 -0.20492098 0.036093254 0.05989527 0.09389416 0.017214898 -0.07262074 -0.0046656253 -0.16589107 -0.007994713 0.001659754 -0.0053576957 0.023265362 0.04899218 0.08910181 -0.003495369 0.021047307 -0.037676584 0.15005863 0.056961436 0.06944691 0.02471609 -0.11414294 -0.039386034 0.16259667 -0.028291438 -0.20248763 -0.17992364 0.022163305
25 0.059948456 -0.051329218 0.20617992 -0.12822698 0.0074873418 -0.08464714 0.04576375 -0.08818668 0.07164583 0.1110947 0.26961648 -0.01951197 -0.020114472 -0.06462668 -0.02151601 -0.063262425 -0.026946424 0.025410196 -0.07291632 -0.029580245 0.05970574 0.1600817 0.11815481 0.060244996 -0.12359172 0.17923434 -0.038410805 0.1764506 0.09697358 -0.041091114 -0.22210719 0.054875057 -0.051209606 0.056856614 -0.09538652 0.04221218 0.2942848 0.084794626 0.25334942 0.006125794 -0.048793036 0.03957131 -0.07603062 -0.1939651 0.10448202 -0.0034671493 0.08612478 -0.19783235 -0.065758154 0.05595287 0.08331299 0.040897 0.04683672 0.08868223 0.028301377 0.060731687 0.17218263 -0.06669181 -0.110993244 0.01724547 0.084078796 -0.15890099 0.094207264 0.085622236 0.121522725 0.004056402 0.09640014 0.0048539015 -0.123687975 -0.10843737 0.15176469 0.020268546 -0.11203265 0.05838197 0.045339804 -0.12441964 0.040500693 -0.009711083 0.055536024 0.16805132 0.014819988 -0.087581016 -0.042708907 0.12179469 -0.08514399 0.11995868 0.13676102 -0.14845513 0.13420627 0.19109719 -0.124301635 -0.021094646 0.07146286 -0.034074612 0.12635283 0.034140147 -0.28095272 -0.35637864 0.024071135 -0.041328162 -0.20933086 0.048126638 0.055398654 0.08133422 0.0059150527 -0.065772444 -0.0049031805 -0.17905857 -0.013212893 0.00932155 -0.010681777 0.019167647 0.052863255 0.09403098 0.004440993 0.016059315 -0.031613983 0.15883772 0.05780865 0.07225846 0.029230947 -0.105398275 -0.04482289 0.17959395 -0.029452477 -0.20095794 -0.18565442 0.025676653
31 0.05015053 -0.05178519 0.22379503 -0.15375714 -0.008326964 -0.106912464 0.020591723 -0.08255179 0.07387069 0.13969406 0.29346937 0.0030570829 -0.02144575 -0.051544417 -0.04558598 -0.070066884 -0.024130177 0.038577475 -0.069189556 -0.030879024 0.07291386 0.12522127 0.118705735 0.036229823 -0.108961076 0.14293817 -0.06742573 0.17441286 0.114729315 -0.05181583 -0.1863191 0.0753516 -0.064534456 0.056713324 -0.07651184 0.036871713 0.27428904 0.048625167 0.22657827 0.030806502 -0.032387946 0.039785855 -0.047830302 -0.21067233 0.06841303 -0.00788207 0.08727021 -0.2043074 -0.05121208 0.044198554 0.10910578 0.026022695 0.008453721 0.07566523 0.028301587 0.0730022 0.15007599 -0.07636776 -0.109514356 0.040569767 0.0981743 -0.15187718 0.074928746 0.099299386 0.12695059 0.010618272 0.11616637 0.009318493 -0.103171535 -0.10488314 0.12625894 0.020876192 -0.11575969 0.035967622 0.06873352 -0.15259705 0.045215346 -0.021535655 0.06591132 0.16562836 0.006780518 -0.08747307 -0.03350977 0.10355856 -0.06181167 0.13528557 0.10869883 -0.13634492 0.111568235 0.18289761 -0.11965538 -0.027426839 0.0695112 -0.030300781 0.122179165 0.021657364 -0.25603652 -0.37274978 0.017277572 -0.009894952 -0.20097399 0.09129642 0.054730814 0.066055514 0.0071511567 -0.05821821 -0.009449681 -0.19106083 0.0014875189 0.0064563905 -0.018849654 0.015461108 0.06445414 0.08696818 0.029652037 0.022224221 -0.03319196 0.15953806 0.061364617 0.03851603 0.019592179 -0.092393056 -0.055147376 0.16948435 -0.03130559 -0.1560166 -0.18906961 0.005171613
17 0.045547444 -0.065339 0.030814948 0.0017697922 -0.017211048 -0.017565103 0.023038905 -0.05725811 0.059456132 0.062373113 0.16044132 -0.055642992 0.01249849 -0.03348151 0.067002915 -0.016910829 0.096221484 -0.024922233 -0.04835926 -0.10162839 -0.03832715 0.24606174 0.12269084 0.108736746 -0.08409907 0.25152048 0.0032302847 -0.04682117 -0.011876138 -0.051230848 -0.33622155 -0.003461648 -0.0005491352 0.10718005 -0.100839175 0.11543835 0.34191722 0.07865157 0.26479322 -0.111139216 -0.061951365 0.014260006 -0.10936964 -0.10929141 0.10883965 -0.03636779 -0.10980683 -0.09055196 -0.053431924 0.06579045 -0.026893044 0.003908353 0.18033865 0.15997766 0.047774903 -0.018949449 0.06731981 0.034422964 -0.12841928 0.043761767 -0.014944343 -0.098341525 0.119980365 0.06421989 0.11153045 -0.0084365895 0.0012818401 -0.005276029 -0.1551433 -0.2310766 0.18340077 0.011857154 -0.08807486 0.005212883 -0.07639196 -0.03038562 -0.0041333335 0.007911618 -0.09936238 0.09825424 -0.0186061 -0.028135266 -0.035147388 0.22347596 -0.13538156 -0.0038403848 0.20502023 -0.110057734 0.114274435 0.20684148 -0.11798222 -0.029466566 0.026238171 -0.055302847 0.22326177 0.0736418 -0.28851137 -0.17363673 0.11945922 -0.10918467 -0.10093384 -0.14832465 0.08204911 0.13394943 0.035668362 -0.1375844 -0.0029315797 0.080796555 0.02997696 -0.01951726 -0.016752716 0.036103573 0.055934124 0.12207471 -0.18647757 0.094021186 -0.07008555 0.13390005 0.06575258 0.1705216 0.05539271 -0.19288215 -0.006808665 0.11066036 0.030572115 -0.28284955 -0.111460954 0.10120578
22 0.039342158 -0.064174086 0.06647338 -0.02736355 -0.021358354 -0.041749816 0.019466115 -0.06579602 0.052028958 0.0921328 0.19086078 -0.0469123 0.0025050642 -0.033294525 0.037190568 -0.04213546 0.054758783 -0.010030665 -0.050673176 -0.08274131 -0.0110498145 0.20717789 0.12931888 0.09770809 -0.08544887 0.22101551 -0.014790869 0.029580668 0.016691487 -0.061594095 -0.2970812 0.017595492 -0.010823825 0.087955736 -0.08440221 0.09474434 0.31563157 0.06701509 0.24352767 -0.06205617 -0.05358648 0.031121287 -0.099388316 -0.13578825 0.097516514 -0.022756355 -0.057153903 -0.10659558 -0.037653025 0.072695106 0.01109533 0.017175049 0.13334735 0.12426446 0.03355292 0.018227173 0.07955123 0.001220297 -0.11876327 0.063046075 0.014026731 -0.10823603 0.119750716 0.07889062 0.11790072 0.00990494 0.039969932 -0.013017534 -0.13453628 -0.20365815 0.16092725 0.0034243749 -0.0873193 0.005449335 -0.028967181 -0.07237865 0.023632154 -0.0029081847 -0.051667694 0.11876672 -0.008153278 -0.038411178 -0.04728806 0.18470745 -0.11997396 0.031098483 0.18888496 -0.110470206 0.11340106 0.19153938 -0.103879444 -0.03277817 0.058776937 -0.04590406 0.19279823 0.06557427 -0.28656358 -0.23755494 0.08743005 -0.07100987 -0.13851942 -0.08387463 0.085292555 0.12356207 0.03380048 -0.11426415 -0.008214541 0.0067400686 0.021376794 -0.008728147 -0.022116205 0.018645542 0.061511163 0.10589062 -0.1319495 0.077768475 -0.045781113 0.13830325 0.06469888 0.13731362 0.03595064 -0.16118443 -0.024193756 0.12590623 0.017323937 -0.24569832 -0.13449737 0.06423378
18 0.044578105 -0.06374866 0.10326051 -0.052134708 -0.021217907 -0.041304503 0.015476238 -0.06760382 0.051652778 0.091703504 0.19802043 -0.02964964 -0.01633514 -0.04229096 0.014024168 -0.05117489 0.040945724 0.0032701357 -0.05758144 -0.07628867 0.009476682 0.18419158 0.13819943 0.08652906 -0.08523816 0.19308424 -0.034679595 0.043072227 0.035041347 -0.06225624 -0.25493598 0.036431793 -0.023110142 0.073472865 -0.083430536 0.06820037 0.31196433 0.05723224 0.24103203 -0.044262234 -0.03516947 0.030142792 -0.08378259 -0.15224314 0.08470707 -0.02325835 -0.02537235 -0.11972952 -0.03678348 0.060633462 0.028179752 0.0060445336 0.10897831 0.12056409 0.03177502 0.037262484 0.08425006 -0.011075827 -0.11554058 0.06372479 0.03647455 -0.11809863 0.1037778 0.09253651 0.111406304 0.0037391954 0.054640014 -0.004677143 -0.12376801 -0.18231437 0.15332289 0.010812045 -0.081198566 0.014983698 -0.018908102 -0.0809841 0.022589257 -0.009107512 -0.020073649 0.12770945 0.0027144854 -0.046872973 -0.045850135 0.16600105 -0.10767829 0.06200369 0.16711263 -0.10021348 0.109205715 0.1909433 -0.104113996 -0.024385836 0.06048675 -0.051823538 0.17790118 0.04599922 -0.26268053 -0.24034351 0.06751504 -0.05186947 -0.14063703 -0.03934129 0.07851009 0.11005552 0.023736157 -0.10204737 -0.0013943525 -0.021013465 0.022900766 -0.016371587 -0.01982614 0.009140518 0.053555254 0.1044372 -0.0968904 0.057173297 -0.038180355 0.14575906 0.065627165 0.11346269 0.025360012 -0.14760005 -0.024724824 0.11754133 0.0004468193 -0.21004526 -0.14136007 0.043324273
10 0.06306304 -0.054071024 0.25016633 -0.1788236 0.004537597 -0.11736346 0.029728057 -0.07573587 0.0873894 0.14226523 0.32289708 0.012409763 -0.032279823 -0.06711105 -0.053164765 -0.06975673 -0.058059696 0.039076783 -0.07939045 -0.015638089 0.08427652 0.11271482 0.11819085 0.029594628 -0.12237003 0.13405827 -0.067451045 0.2354886 0.13927329 -0.03576657 -0.17071724 0.07339156 -0.06688824 0.041370705 -0.08219763 0.021158138 0.2769716 0.056489047 0.2534895 0.05129049 -0.027452592 0.037657037 -0.04823266 -0.23443893 0.082375705 -0.0023346383 0.14048533 -0.2315237 -0.058641702 0.038275782 0.12419369 0.0305356 -0.0068961214 0.07336969 0.043842442 0.08699379 0.18775709 -0.09373034 -0.10943401 0.029690795 0.10980282 -0.1711981 0.07443241 0.114299275 0.12877716 0.016484872 0.13860923 0.018622437 -0.11969759 -0.078389086 0.13319801 0.021876719 -0.11533279 0.057036705 0.08817535 -0.17821681 0.050747424 -0.023613011 0.10215924 0.1827879 0.021362996 -0.10763587 -0.044528037 0.089059375 -0.04900069 0.173513 0.10208279 -0.14221954 0.12813465 0.19451672 -0.13040695 -0.021372775 0.08557514 -0.026743809 0.101395175 0.015877675 -0.26235747 -0.4115511 0.012805737 -0.0066573503 -0.22939381 0.126239 0.044249002 0.056451567 -0.0077928193 -0.044581417 -0.008505053 -0.2457918 -0.017309777 0.0033294482 -0.014679166 0.028207619 0.050838664 0.09356513 0.07747835 0.005555011 -0.02822798 0.16272601 0.062196 0.028229568 0.010292951 -0.08461536 -0.05985396 0.19764508 -0.04422955 -0.16076894 -0.1909292 -0.016648198
21 0.053536557 -0.038466576 0.25669 -0.18048796 -0.0014913783 -0.12532826 0.03347701 -0.07339051 0.07256708 0.15325692 0.31994504 0.006242318 -0.031821508 -0.067835554 -0.055408973 -0.07080931 -0.041456312 0.049642928 -0.081752814 -0.004824824 0.08109282 0.113850206 0.10997488 0.04125795 -0.12988235 0.12894341 -0.06915263 0.22297823 0.13035588 -0.0462744 -0.17492403 0.076026134 -0.08162326 0.04335381 -0.08845304 0.031862956 0.28449044 0.060491405 0.25011244 0.043976653 -0.024501974 0.047997907 -0.038565427 -0.22617777 0.06841585 0.0059028575 0.13440666 -0.23279658 -0.06306086 0.02705315 0.13392855 0.031767737 0.00487131 0.0644992 0.047194924 0.07940212 0.18614638 -0.09372692 -0.1034619 0.019469136 0.11987919 -0.16677631 0.06478448 0.10453349 0.13623667 0.006391806 0.120172046 0.015502088 -0.11337005 -0.09394767 0.13585912 0.021244239 -0.12562674 0.053351287 0.080725744 -0.17199524 0.047543436 -0.028069131 0.09345956 0.19435881 0.017341103 -0.10277193 -0.032783374 0.08036857 -0.048550993 0.17015946 0.103540204 -0.14603554 0.12736244 0.19103445 -0.12801856 -0.021143498 0.08237428 -0.020031499 0.100075744 0.016960928 -0.26844695 -0.40820485 0.01744984 -0.010771082 -0.22996424 0.12306025 0.04344061 0.052253816 -0.0012826767 -0.04295828 -0.0146965915 -0.23761138 -0.012901827 0.0014065828 -0.008516004 0.024384592 0.06358397 0.086516626 0.079491064 -0.0027616506 -0.022517284 0.16883975 0.06050033 0.02208349 0.016441138 -0.084966116 -0.0660422 0.18243018 -0.049643416 -0.16214883 -0.18465228 -0.013279284
27 0.06592882 -0.043622773 0.2857633 -0.20028402 0.006221307 -0.12814884 0.040670894 -0.084979214 0.077873796 0.16040456 0.33013344 0.012297408 -0.034767173 -0.06777071 -0.053783607 -0.081485055 -0.060709275 0.04722275 -0.0787813 0.0069038137 0.09815591 0.10814811 0.1066293 0.03815022 -0.1361015 0.13764997 -0.07463291 0.26241297 0.15770794 -0.04119796 -0.16358751 0.090413295 -0.07964201 0.046865642 -0.08784146 0.01778688 0.2895427 0.063059956 0.25307232 0.06785005 -0.035640668 0.04829791 -0.045336798 -0.23465966 0.08819899 0.0029267792 0.16063917 -0.24378528 -0.068529114 0.029855704 0.13736747 0.037457675 -0.01750701 0.057840392 0.041010793 0.105516 0.19741832 -0.10191197 -0.10481623 0.018775484 0.11848729 -0.18144271 0.07184123 0.1191801 0.1406799 0.01792184 0.14451504 0.0054948623 -0.11047107 -0.07685316 0.13268739 0.0273234 -0.12911397 0.06575401 0.10543905 -0.17846017 0.059430424 -0.03206605 0.12877753 0.18841515 0.014084002 -0.11676235 -0.045854595 0.07423094 -0.061685853 0.18222226 0.09519872 -0.15128201 0.13989064 0.19202769 -0.1286445 -0.022562226 0.09503384 -0.022062045 0.094904765 0.017540589 -0.28127655 -0.4419545 0.0060741724 0.00508923 -0.25161505 0.15067574 0.044440757 0.047719236 -0.013935337 -0.027690373 -0.012677126 -0.28765124 -0.022450378 0.018943494 -0.012688864 0.017109737 0.05625633 0.08176105 0.09212394 -0.0044497577 -0.020216003 0.1723915 0.058073226 0.016763367 0.016952235 -0.08519437 -0.070935495 0.20828204 -0.06623232 -0.15668933 -0.21230577 -0.01410249
13 0.029431488 -0.08268654 -0.0056318995 0.02550196 -0.024977751 0.009617725 0.006214602 -0.06355694 0.05186798 0.061806533 0.13855945 -0.06711975 0.007483675 -0.017657638 0.06373109 -0.039074585 0.101504 -0.018436141 -0.053845104 -0.13321847 -0.06073313 0.26272053 0.15123336 0.12831165 -0.060810965 0.26386863 0.0082273055 -0.07899047 -0.030182667 -0.063227296 -0.3576148 0.0040312344 0.0118377935 0.113302015 -0.08467369 0.12313479 0.35513026 0.06960084 0.2550065 -0.11255362 -0.065559894 0.013745362 -0.11858743 -0.11234777 0.10030448 -0.043908827 -0.15011778 -0.070577174 -0.024250511 0.07328891 -0.045678325 0.0068424554 0.19820006 0.17391717 0.032351565 -0.010202447 0.030541671 0.043356057 -0.12813334 0.07356783 -0.017028736 -0.09547518 0.14294866 0.07358948 0.108491614 0.010542419 -0.003475313 -0.010398572 -0.16016649 -0.25923952 0.18330364 -0.00304436 -0.07421518 -0.0066763097 -0.08455059 -0.030367183 -0.0035766787 0.01211746 -0.12061015 0.08691864 -0.011745145 -0.013399966 -0.044296544 0.23909952 -0.14843404 -0.020041574 0.228645 -0.09253505 0.10056723 0.21506639 -0.096482135 -0.019828927 0.0399109 -0.06543777 0.2535375 0.0835036 -0.3003912 -0.15637563 0.120801866 -0.113142714 -0.08287413 -0.17575009 0.090995796 0.15667258 0.050159704 -0.14719658 -0.008565927 0.12357309 0.04020628 -0.027042136 -0.014190453 0.021305094 0.065687425 0.13304241 -0.21542142 0.10480121 -0.06634459 0.12810262 0.06674613 0.18792956 0.053962305 -0.1988739 0.002873604 0.099910825 0.047107354 -0.28362706 -0.11115717 0.10396002
15 0.049579892 -0.052644227 0.24949817 -0.16792475 0.00038481946 -0.10711656 0.031987276 -0.08306239 0.07048148 0.14761287 0.31417307 0.0026398823 -0.023807503 -0.055633854 -0.062239964 -0.079490356 -0.057520114 0.04705498 -0.081139214 -0.011793911 0.09244391 0.10491947 0.1076483 0.03660159 -0.12780616 0.12871955 -0.076934144 0.21931678 0.13044769 -0.043787546 -0.17072234 0.08543636 -0.06535384 0.039950706 -0.073315494 0.0171915 0.27605796 0.059544954 0.24273922 0.04334424 -0.027310485 0.048380475 -0.057879396 -0.2271184 0.07336244 0.0035422752 0.12705079 -0.2278522 -0.051791552 0.03473064 0.124411196 0.038430694 -0.009275199 0.07459131 0.029480176 0.084841974 0.17122789 -0.093280956 -0.11002152 0.038080055 0.11647419 -0.17500138 0.077802345 0.11717616 0.12215941 0.019229827 0.12253263 0.018301321 -0.1035038 -0.0872269 0.12037928 0.018107865 -0.119159564 0.054126542 0.09168128 -0.16888563 0.04989226 -0.029393243 0.09923936 0.18314971 0.01232997 -0.0996436 -0.029226644 0.08750008 -0.054393727 0.16523784 0.09819289 -0.14227775 0.12021861 0.18150729 -0.12626898 -0.017224941 0.0780722 -0.0198216 0.102966905 0.008818554 -0.2616856 -0.39794704 0.0072688265 -0.0017999999 -0.23311165 0.12596701 0.041804433 0.050383087 -0.0077738725 -0.03255919 -0.009395101 -0.23580872 -0.0020269363 0.0020021482 -0.008492775 0.020531597 0.06155679 0.081854485 0.0749087 0.0025040028 -0.018659215 0.1669541 0.058333598 0.0315506 0.020155782 -0.08244403 -0.052931823 0.18829954 -0.05043601 -0.14976165 -0.1919224 -0.014723989
23 0.05381637 -0.051889554 0.22861232 -0.15642975 -0.007949986 -0.10377192 0.031025982 -0.08527537 0.081616625 0.13790724 0.3027127 0.00089419074 -0.017601717 -0.06314336 -0.047233738 -0.06941105 -0.036353584 0.04309492 -0.08262317 -0.02380538 0.06959903 0.13101847 0.122853264 0.043920625 -0.12085101 0.14404128 -0.06168007 0.19288479 0.1114874 -0.040395934 -0.19256276 0.06775559 -0.06648399 0.05575515 -0.08902409 0.038173597 0.29747146 0.06533576 0.25472528 0.031585477 -0.033662796 0.038130876 -0.048596714 -0.22168261 0.078337565 -0.0051035676 0.10243192 -0.2166624 -0.05240592 0.04084273 0.10604481 0.024493696 0.010905513 0.08439298 0.029811379 0.08208952 0.1632184 -0.08938605 -0.1142007 0.041631516 0.09792409 -0.15822594 0.07389801 0.1026628 0.12489693 0.014364883 0.11225031 0.0020063794 -0.12200796 -0.10860838 0.14157851 0.014547973 -0.12184682 0.049603317 0.0689333 -0.16144079 0.055319402 -0.023753405 0.07879447 0.18420716 0.013630184 -0.08283432 -0.02944299 0.10322141 -0.0723965 0.1483695 0.10954452 -0.13846008 0.12673692 0.18376215 -0.12625486 -0.026921945 0.075415246 -0.02702294 0.121656336 0.02391935 -0.27044386 -0.37192437 0.01562042 -0.013117555 -0.21706772 0.09316623 0.05631669 0.07122327 0.00095447333 -0.050746918 -0.0037161703 -0.2056791 -0.0076654605 0.0032174955 -0.015405292 0.027609384 0.06439321 0.09696738 0.047050953 0.010780237 -0.030530103 0.1534211 0.05684503 0.037658375 0.023287218 -0.09519192 -0.05868538 0.18239284 -0.03468217 -0.1684462 -0.18884706 -0.0020704318
19 0.05055006 -0.050104696 0.21633536 -0.1463497 -0.0029021506 -0.093380444 0.02540135 -0.07576767 0.07138322 0.13776751 0.2860598 -0.013051852 -0.025426872 -0.061687816 -0.039655004 -0.07399699 -0.023849092 0.037007254 -0.07886681 -0.032800075 0.061630864 0.14048082 0.12224511 0.050271884 -0.1193641 0.15694183 -0.059522383 0.17511278 0.09948544 -0.043816615 -0.20751612 0.067027606 -0.06373904 0.05196724 -0.08521108 0.033872582 0.29893646 0.058473162 0.24848273 0.014108228 -0.025974102 0.040401395 -0.06943197 -0.20482627 0.07864168 -0.007482799 0.08725037 -0.20912758 -0.060428225 0.03779122 0.10302106 0.03692712 0.030430436 0.09019748 0.040527154 0.06913448 0.16620487 -0.06851423 -0.11032186 0.04536045 0.086266056 -0.1612869 0.094155714 0.10717119 0.1225683 0.013197532 0.10802417 0.004986197 -0.1214521 -0.11413232 0.1403856 0.02065166 -0.11863646 0.05277304 0.05318587 -0.15424016 0.045304526 -0.02248197 0.062031806 0.1708405 0.010634749 -0.083583385 -0.03335914 0.11248642 -0.07453117 0.13854314 0.13249826 -0.12927973 0.122904986 0.19778162 -0.12946373 -0.02440938 0.069144234 -0.03364333 0.12875971 0.022374542 -0.2771411 -0.36577573 0.019282361 -0.017464474 -0.2060313 0.079267964 0.054474305 0.08327913 0.015874472 -0.060413945 -0.010457502 -0.19303955 -0.005236886 0.00076295616 -0.010016998 0.019565001 0.053855795 0.09917309 0.017023649 0.031126935 -0.0287447 0.15727937 0.06279359 0.064113505 0.020873925 -0.11116422 -0.04300681 0.17813408 -0.024953434 -0.18899104 -0.18756534 0.013860819
16 0.052553553 -0.052510507 0.2055471 -0.1434812 -0.008528887 -0.08868442 0.029496593 -0.083754174 0.08214186 0.12816657 0.28444797 -0.008248559 -0.015834387 -0.06362405 -0.03488713 -0.06803383 -0.020384451 0.03728537 -0.07545238 -0.034223806 0.065588996 0.14147091 0.11246257 0.0459551 -0.1205368 0.15937304 -0.06207754 0.17286019 0.112842664 -0.04761143 -0.19762854 0.06499843 -0.06451171 0.0515163 -0.08769275 0.045306098 0.29349127 0.062404264 0.25043708 0.022587573 -0.038180996 0.04258755 -0.061554197 -0.21373077 0.084355816 -0.0034801646 0.0907839 -0.2106198 -0.061478734 0.036646817 0.09812993 0.027372185 0.029535778 0.090740316 0.042115085 0.070808925 0.15899163 -0.07191791 -0.11684963 0.027722614 0.09613311 -0.16205561 0.076072596 0.105419464 0.13472795 0.011541443 0.107545696 0.004510263 -0.12172648 -0.119553216 0.13380554 0.013519494 -0.120819174 0.056356043 0.06460156 -0.14676684 0.045114987 -0.009920626 0.06638367 0.1675965 0.010748048 -0.08418144 -0.03995003 0.10625396 -0.06540534 0.14297146 0.11562588 -0.13975264 0.12516145 0.191555 -0.12981333 -0.015448387 0.06744642 -0.026973875 0.1333075 0.026047545 -0.27161923 -0.36703238 0.019720856 -0.020571481 -0.21113603 0.06641895 0.059835885 0.067858025 0.0075803697 -0.062662855 -0.016446771 -0.19280332 -0.000113831156 -0.0013916747 -0.00825873 0.02146525 0.06559919 0.1012364 0.032665603 0.027819673 -0.03946077 0.1526987 0.05538117 0.054331217 0.028216183 -0.10229649 -0.050737128 0.17960916 -0.034104794 -0.18776527 -0.1767793 0.0017080251
12 0.042198338 -0.070745744 0.09544869 -0.051792935 -0.017425304 -0.047676858 0.02172833 -0.07188168 0.061034195 0.09501734 0.21090508 -0.04134723 -0.009947633 -0.043927573 0.026042342 -0.0529435 0.04727284 0.0009970044 -0.05405579 -0.09300474 -0.0032187751 0.20017804 0.12606323 0.098868705 -0.08425702 0.21349822 -0.023366675 0.040237572 0.033811897 -0.049252506 -0.28945643 0.03757407 -0.011230552 0.0827864 -0.08002905 0.08844796 0.3283852 0.06552314 0.25460976 -0.05208315 -0.04181556 0.030598318 -0.096934944 -0.15016925 0.083613716 -0.025090598 -0.04924511 -0.12454948 -0.039697155 0.060811073 0.02425329 0.005883876 0.117767505 0.12712933 0.036517993 0.019526422 0.07979883 -0.005136546 -0.12603778 0.06215884 0.027084433 -0.11790977 0.11374947 0.078407295 0.10949239 0.0023531336 0.04115645 -0.007498547 -0.1392827 -0.19096541 0.15898457 0.004084692 -0.09229846 0.012131404 -0.028769486 -0.08414284 0.015954666 -0.0054941513 -0.041525044 0.116162196 -0.0017764296 -0.050036926 -0.044634398 0.18079273 -0.10459202 0.04767996 0.18176451 -0.11542452 0.109296516 0.20494115 -0.11257268 -0.014123423 0.053644393 -0.04476449 0.19646375 0.04892416 -0.28590247 -0.25134632 0.07774847 -0.07162315 -0.1375124 -0.06373228 0.07677969 0.114911675 0.03386659 -0.11635117 -0.008591698 -0.010716043 0.026770826 -0.016564904 -0.016553229 0.015371804 0.060603242 0.10476159 -0.11270879 0.068366505 -0.052533165 0.14853153 0.053591408 0.12923004 0.039915387 -0.15896323 -0.024752704 0.13385937 0.0057279696 -0.2310774 -0.13622491 0.06090715
